3.662782589676958776e-39 -6.528770056957254668e-39 -7.331341331623864448e-40 3.868689386024847396e-39 -9.674424467852104576e-40 5.628318084557556415e-39 4.655636182814235466e-39 6.005617696077013411e-39 -5.465400322498224533e-39 -5.864338784903785354e-39 -1.026983618534371935e-40 -1.796243226107052164e-39 3.103305770004489612e-39 6.476749654066124484e-39 -3.944353897904530219e-39 -6.476306843751397841e-39 5.506108042886860469e-40 2.340671501571137118e-39 -3.818730293174739018e-39 -6.019473735292257203e-39 1.640274503132307049e-39 2.380751440247755536e-39 -6.199337399680669098e-39 5.019557597894783434e-39 2.308857822535570796e-39 5.315165712839496570e-39 2.236046354329253301e-39 5.818966141927412102e-39
5.630179008918179772e-39 1.133761525154113770e+00 7.555994391441345215e-01 1.744989333475907655e-39 1.315614668425211806e-39 -7.562233279590664557e-40 2.153543505943665371e-40 -2.534563839435577393e-01 6.434863441668991377e-39 1.876048574948814821e-39 7.035561650991439819e-02 9.515609145164489746e-01 -4.961448553176161920e-39 -3.270354270935058594e-01 7.221394032239913940e-02 -4.581515789031982422e-01 1.887010932835227865e-39 -3.112473064558102565e-39 1.482004848079140585e-39 -9.827343225479125977e-01 6.193453347428969191e-39 3.664258420467376709e-01 -3.668923079547630124e-39 -2.716108787431506432e-40 3.286156058311462402e-01 -6.073926091194152832e-01 6.388002619723505169e-39 8.003741502761840820e-01
6.491742146335935701e-39 -3.095583915710449219e+00 5.146617442369461060e-02 -4.036416404413742051e-39 -3.446728991148894155e-39 -4.707344096147821216e-39 4.123233850770986093e-39 -5.569706112146377563e-02 2.636055408761558283e-39 -6.145336962059447947e-39 -4.290032863616943359e+00 1.164738386869430542e-01 -3.964536799686200559e-39 2.262780964374542236e-01 1.509341150522232056e-01 2.507466636598110199e-02 -2.286480487358767792e-39 6.685679051201561734e-40 -5.366533110646251389e-39 6.542382240295410156e-01 2.638628192742058647e-39 -2.338735461235046387e-01 -2.448662567724329145e-39 -5.197899452150938578e-39 -1.740242719650268555e+00 3.451967239379882812e-01 6.319239502780622070e-39 2.976042032241821289e-01
2.969181888790104070e-39 7.908086180686950684e-01 6.646524071693420410e-01 -2.939285186053734098e-39 4.864747748750034943e-41 5.210924521376837753e-40 -6.513302524508037337e-39 5.989451408386230469e-01 6.466448709054872753e-39 2.475315264515787166e-39 4.988493025302886963e-01 2.964709401130676270e-01 3.417206435102498909e-40 -2.225116789340972900e-01 5.420212149620056152e-01 6.865372061729431152e-01 -5.225677391609249427e-39 -3.258747604756648595e-39 -2.824825726189218715e-39 -5.883365869522094727e-01 -1.272233270566644119e-39 -1.353113800287246704e-01 1.325165918758049759e-40 5.388498464074542897e-39 -4.791125059127807617e-01 -1.047937497496604919e-01 -4.329101410761873618e-39 3.618366420269012451e-01
1.673188201462368353e-39 5.850907339123231983e-39 3.842444467086507897e-39 6.122254773755089560e-39 6.097510645472041940e-39 6.151298085726685719e-39 3.876985072933650313e-39 1.117192207175282034e-39 -5.051521215866032512e-39 1.973078684514058129e-39 2.711571383004022675e-39 4.393720888145748232e-39 1.307300764636372667e-39 -4.521111530239053028e-39 -2.580995589501307570e-39 3.873822342299669201e-39 3.514406101781925520e-39 -2.791899416172978488e-39 -1.250869074179547958e-40 -5.596675363934637721e-39 -1.699555033367104111e-39 -4.682566336701629801e-39 2.920754415161502717e-39 5.889237056017908704e-39 -5.696474439265386868e-40 -4.519246401983036696e-39 5.300304942625331885e-39 -1.140045983829955475e-39
3.195542037523277721e-39 1.284824609756469727e+00 -9.095141887664794922e-01 -5.875672486883244475e-39 -4.956574837117240206e-39 1.120574941668162142e-39 2.240774335347885234e-40 6.083278656005859375e-01 -4.457974626630434070e-39 5.772635010801440675e-39 2.245607376098632812e+00 -2.343023866415023804e-01 -2.541502794881241251e-39 5.546308159828186035e-01 4.032020270824432373e-01 5.091554522514343262e-01 -3.093394385966320180e-40 3.584329493853269567e-39 5.508987711231047968e-39 8.270370215177536011e-02 -8.500710887118281046e-40 2.665009200572967529e-01 -2.715155904475765557e-41 -3.593837303933713451e-39 4.894575774669647217e-01 1.356887072324752808e-01 2.210143352216209057e-39 -6.518207192420959473e-01
4.763222273711237622e-39 1.113893550590261414e-39 -5.754936611197018236e-40 -1.083471360929769636e-39 -2.476880514900437987e-39 -4.024913145320099628e-39 -1.052488651883547930e-39 2.463620027532532243e-39 6.520318825918911696e-39 5.349554978452491905e-40 3.215420857538189576e-39 4.001281648017725912e-39 4.245499944380255032e-40 -4.617373728245846336e-39 9.497174225099658465e-40 6.005717188267980473e-39 1.236951377831873875e-39 5.564872895286785997e-39 -1.559273846700475323e-39 9.282775560057961453e-40 -1.481060372914185659e-40 4.281692681116836407e-39 3.616382794926235433e-39 3.249623750455429711e-39 -3.023655965292267009e-39 3.291274544710556249e-39 -6.354968409725511931e-39 -4.144948371774163458e-39
-2.610661077991063948e-39 4.415993392467498779e-01 -8.298119306564331055e-01 -5.464493682391806376e-39 1.143531013110731296e-39 4.259909496488907126e-39 1.708824622708612776e-39 -5.668766498565673828e-01 6.202076938178424115e-40 -1.366155300138014984e-39 2.204874455928802490e-01 -2.920634672045707703e-02 3.426833355552410402e-39 2.379552721977233887e-01 -5.606699585914611816e-01 -7.375561594963073730e-01 -1.942074955990871552e-39 -6.025052304478734299e-39 4.235985127807489524e-41 4.502838551998138428e-01 2.182382228339470106e-41 6.575825214385986328e-01 -1.442897410536763590e-39 -6.545280155463929662e-39 7.179872393608093262e-01 1.225357651710510254e-01 -6.426452848286113824e-39 1.328138913959264755e-02
-5.651192880689194729e-39 -3.699249980912547815e-39 -3.765671528121544145e-39 2.537227433266586234e-39 -4.684239487068033632e-39 1.148882571945987772e-39 -3.784565235316035653e-39 2.846809296497546445e-39 -2.406029463245710911e-41 3.325169151965644924e-39 4.159772708228255698e-39 -4.811683378502982771e-39 8.093787826062997416e-40 5.174670127507826085e-39 5.783888838768433281e-39 5.574911797485208987e-39 -3.561324376964449046e-39 -7.082050334820479491e-40 -2.423341104473979701e-39 -5.051204522413095103e-39 3.494031222110642680e-39 3.966061412415385960e-39 1.633905601611950756e-39 -4.864191433259697991e-39 -8.677288506607851245e-40 4.255240370005776835e-39 -4.652870019645658277e-39 -7.902132235097292185e-40
3.959207661626373280e-39 3.919096291065216064e-01 9.027907252311706543e-01 6.367772073794047785e-39 -5.613011701431736438e-39 4.726286848788564093e-39 4.670124207636889750e-39 7.157138586044311523e-01 2.972615070027699872e-39 -4.404677640838303977e-39 3.460273444652557373e-01 3.534541130065917969e-01 4.215367823501878490e-39 -3.782682120800018311e-01 6.963770389556884766e-01 7.460858821868896484e-01 -8.783128579618304678e-40 -1.076906277624407868e-39 -2.345960001975498977e-39 -8.618318438529968262e-01 7.007655399349474953e-40 -4.587479829788208008e-01 4.325323510102053911e-39 -1.133005860345187595e-39 -7.458131313323974609e-01 -1.922596246004104614e-01 6.187502032850981693e-39 1.770112365484237671e-01
-6.520031559733725108e-39 -5.743597304023701816e-39 3.361600109441161518e-39 4.393605981671673597e-39 3.454671550844687218e-39 1.455375973361576087e-39 2.803842682984418904e-39 6.495242589899819094e-40 -4.552722020997292251e-39 9.200673483033170421e-40 4.586270507531692697e-39 -5.618270774568347477e-39 -6.359745436190395233e-39 3.085535904178386606e-39 -1.536790012840383634e-39 5.573604386017993932e-39 1.339613305925238623e-40 -3.369820126232890895e-39 3.579759859561106339e-39 5.177762793218590957e-39 6.443115688325400224e-39 5.649160997915923744e-39 -1.969931368163184590e-39 3.764486029620725349e-39 1.774570744057804543e-39 5.689844896230666158e-39 3.734582320392033753e-39 1.551918431061234359e-39
4.095451707417282269e-39 2.662035482290140391e-39 1.752490484155438400e-39 -2.810500251988426110e-40 -6.549290671668827289e-39 3.240764741563968217e-39 -1.669811072163345544e-39 -1.578730875877625408e-40 -4.478603141323759702e-39 -1.436937688167990143e-39 -1.211614500298416858e-39 4.325798550281460024e-39 -7.428857691756228468e-40 -3.363837983088688251e-39 -1.399510407484338604e-39 3.194220613071419418e-39 -2.722627627887545481e-39 4.449698557900131700e-39 5.561012318017571126e-39 5.449279784964631837e-39 -2.655415748344669955e-39 6.180740767760614450e-39 -3.848614384224930067e-39 4.390874850964704529e-39 4.118913647605472682e-39 -2.904916939917703635e-39 5.018533248717361993e-39 5.566855732613805613e-39
-1.721677332223399998e-40 -1.190952354441947430e-39 2.523134574610871549e-39 3.950554643609167535e-39 -4.932216065911881911e-39 -2.030356759243335027e-39 1.644741842636574566e-39 -2.283424255408075366e-39 4.543863012105830758e-39 2.909677150801015038e-39 -2.940692089711916215e-39 2.233306815831498283e-39 1.520595206488181723e-39 -2.855452505425501917e-39 5.483271081813758925e-39 -1.936556642638360422e-39 2.534482289574973917e-39 1.466223424773914495e-39 5.376284746659487791e-39 6.252321895915254756e-39 4.696886205708565106e-39 -2.853340748639764418e-39 5.786453214958147697e-39 2.305753946437091326e-39 2.376885257784683365e-39 -3.976527710645428019e-39 1.735848663593116873e-39 2.220127603774523379e-39
2.418655162409277513e-39 -7.975630760192871094e-01 -8.707573413848876953e-01 1.504044470326041308e-39 -3.333949688143104228e-39 4.020186565599932020e-39 4.095866491762722415e-39 3.992639482021331787e-01 6.470418587604304960e-39 -3.792964618311198607e-40 4.540551006793975830e-01 -1.034163594245910645e+00 -5.037505428625855691e-39 4.784188270568847656e-01 2.936623394489288330e-01 3.750433623790740967e-01 -2.290803493121209853e-39 -5.193844094395182557e-39 2.069307251357707642e-39 7.689096927642822266e-01 -2.817358206672831765e-39 -3.189943134784698486e-01 1.738233673579397712e-39 6.584880850065748993e-39 -3.386667966842651367e-01 6.078525781631469727e-01 4.892535497297596066e-40 -8.972870111465454102e-01
