6.571429786106695074e-39 -3.868468999862670898e-01 2.086535453796386719e+00 -2.321418970823287964e-01 4.093425429837868584e-39 -4.692122936248779297e-01 -3.545760154921193302e-39 -5.506387352943420410e-01 4.625160743812099345e-39 -2.729146182537078857e-02 6.378780674529783548e-40 -2.575320330720792061e-40 -6.449167896392819109e-40 1.181371733546257019e-01
-4.356617307407355726e-39 -1.125136375427246094e+00 -1.033943891525268555e+00 2.954348027706146240e-01 4.524710064695439158e-39 7.201358675956726074e-01 -2.934586632302852987e-39 -9.208319783210754395e-01 2.703006646790069393e-40 2.610756456851959229e-01 -4.899548996111541775e-39 3.900201785890583883e-39 1.680442723612177931e-39 1.637598514556884766e+00
-4.545265711868619899e-40 -5.284073948860168457e-01 -2.496118247509002686e-01 -9.591837525367736816e-01 6.267028523298343711e-39 2.681270539760589600e-01 4.052424838070188761e-39 1.748304009437561035e+00 -3.078186093733002941e-39 -8.573310375213623047e-01 5.233832948671619862e-39 -4.038756572849164495e-39 2.249245184564728753e-39 5.077956914901733398e-01
