1.966550034968768807e-39 1.277703493833541870e-01 -1.685292617597206123e-39 6.720164418220520020e-02 -5.635529166454971924e-39 -1.448774456296141873e-40 1.194959759712219238e+00 1.357495275628487614e-39 -3.235907841086618401e-39 3.438996626222749815e-39 4.840558469295501709e-01 1.375031936913728714e-02 -8.011288642883300781e-01 4.060048460960388184e-01 -2.853115139587008122e-39 -2.146433317535681249e-39 -4.397891152375578888e-40 3.928523429153052761e-39 6.913912892341613770e-01 -3.603122307558329689e-39 5.159568786621093750e-01 -3.414766774476109403e-39 -5.100520849227905273e-01 6.221136450767517090e-01 2.889906167984008789e-01 -2.442141026258468628e-01 -8.238617777824401855e-01 1.928033945378336885e-39
5.660709098560424562e-39 3.884443342685699463e-01 3.219676600974344045e-39 3.394050598144531250e-01 3.544493381109443668e-39 -1.914438547677457509e-39 -7.783252596855163574e-01 -4.304469386355971984e-39 1.710551022416660950e-39 -1.947601677134168630e-39 4.781647399067878723e-02 -2.648964226245880127e-01 1.185833692550659180e+00 2.417270243167877197e-01 6.119404532678652882e-39 5.952354341448027114e-39 -2.181555462245518464e-39 -1.710116619892720257e-40 -2.869693040847778320e-01 -2.305570376338264775e-39 3.367856442928314209e-01 5.516015223029636925e-39 9.702134728431701660e-01 5.023799538612365723e-01 -1.043539419770240784e-01 1.098564863204956055e+00 -5.963644981384277344e-01 4.930247241569505543e-39
-6.233423984825370273e-39 -4.091902673244476318e-01 -6.464004844533090272e-39 -1.040479391813278198e-01 1.048054943542424209e-39 6.535256667548614246e-39 -3.995669260621070862e-02 -2.795287755859715896e-39 -4.259032283650239790e-39 -2.395997567539609545e-39 -2.216848172247409821e-02 1.564785391092300415e-01 7.173182368278503418e-01 -1.329541057348251343e-01 5.161523145315530652e-39 -5.361596336156435059e-39 -5.935928320849211609e-39 -6.233154935520219908e-39 -5.239976942539215088e-02 -5.051721601546430960e-39 -7.694967985153198242e-01 1.999186276202893796e-39 -6.642308831214904785e-01 -1.112496852874755859e+00 -1.261163353919982910e-01 -7.225040793418884277e-01 5.034450888633728027e-01 4.307606893617595249e-39
-4.523318575320364614e-39 3.542979061603546143e-01 -1.603158310707735620e-39 2.289750128984451294e-01 2.091799493008585281e-39 -2.906972644764868141e-39 3.850551545619964600e-01 2.913796968286130001e-39 6.206115480352608238e-39 4.161197828766474037e-39 -7.629466801881790161e-02 1.060511112213134766e+00 -3.926727175712585449e-01 -3.379572033882141113e-01 -2.915336995298422974e-39 -6.442152996280409075e-39 6.161884895624659712e-39 1.562349696829668297e-39 -3.302654027938842773e-01 -3.525281579163550426e-39 1.907191127538681030e-01 4.815293123347083499e-39 1.203433394432067871e+00 9.828070998191833496e-01 1.047931015491485596e-01 -1.607791423797607422e+00 1.028383016586303711e+00 -3.453079675789214226e-39
6.625766535359354181e-39 8.615744858980178833e-02 -2.983796030474547588e-39 2.384454570710659027e-02 -3.906887380863877585e-39 -2.735766202289054966e-39 -1.193113997578620911e-01 -4.992209857065020304e-39 4.286726145200691150e-39 -3.009393549522369021e-39 5.798750091344118118e-03 -6.908003091812133789e-01 -1.304757893085479736e-01 2.064902335405349731e-01 3.045512017440341181e-40 3.292092903013721942e-39 3.569345409374244299e-40 6.519361739067777846e-39 3.268081247806549072e-01 2.359663299658131364e-39 -7.511144876480102539e-02 -4.041030880256763674e-39 -5.988188982009887695e-01 -7.131880521774291992e-01 -1.548673063516616821e-01 1.138305902481079102e+00 -3.454343080520629883e-01 3.834391204812033174e-39
-4.376606830000949242e-39 -6.662944384916355902e-39 -4.722203465063521577e-39 -6.577781872045479470e-39 -6.101715942163480716e-40 -4.102940246410634092e-39 2.715181127848123403e-39 -3.118935853075568621e-39 4.394088028343401335e-39 2.175431787956419014e-40 3.459581700663681377e-40 -3.437076847326624815e-40 3.252489405814973962e-39 3.400374037949029206e-39 -1.083877737484423833e-39 -5.061205589552981322e-39 3.684317744476702565e-39 -6.432614357633750045e-39 1.810310861390409002e-39 2.512892484135121461e-40 -1.664048932878041896e-39 4.651223493950076617e-39 -5.158059135511719704e-39 3.165070802416534574e-39 6.416514839577122222e-39 -5.996922639105877921e-39 4.611943696696587670e-39 6.022402449082696070e-39
5.707555907521267521e-39 5.014482736587524414e-01 6.452128840047937448e-39 1.988326907157897949e-01 -4.313759995174445521e-39 3.818782141217919036e-39 5.446143150329589844e-01 -2.985735427549173134e-39 4.253372439152831854e-39 -4.434591159156245847e-39 3.752214014530181885e-01 -9.544795751571655273e-02 2.383584380149841309e-01 3.834429383277893066e-01 -6.260055662139863421e-39 1.031794276162399032e-39 5.722164444011853739e-39 4.990346130107468297e-39 2.985265254974365234e-01 2.164819754686087174e-39 5.294772386550903320e-01 3.551691851320680253e-39 4.438675567507743835e-02 6.505302786827087402e-01 2.020726054906845093e-01 -1.708352714776992798e-01 -7.488704323768615723e-01 -4.009503066107919614e-39
-4.406439073007960272e-39 -6.141606718301773071e-02 -4.895287647481530007e-39 -9.905797988176345825e-02 -4.917704219015334105e-39 3.718622932181838411e-39 -2.863139212131500244e-01 -3.490640079826976623e-39 5.047629810030602495e-39 3.955719829748668810e-39 2.773842401802539825e-02 -4.048312902450561523e-01 3.638305068016052246e-01 2.180905640125274658e-01 -3.612712794248168737e-39 -1.337707540013756872e-40 -5.828859309085545311e-39 -3.902166406337567276e-39 2.745584845542907715e-01 -6.205061703907435975e-40 -7.584279775619506836e-02 6.152054786897421120e-39 -6.972221732139587402e-01 -1.172480583190917969e+00 -1.840848922729492188e-01 1.020066738128662109e+00 -2.579880654811859131e-01 1.239543779990874787e-39
-6.292830631921956568e-39 4.148160147854395939e-39 -9.917479686489244097e-40 7.022621266948463999e-40 -6.643272957074164120e-39 3.698625001797458947e-39 1.404455589764940884e-39 6.017764151165780926e-39 -1.040543983773643190e-39 3.285568457363825594e-39 4.429036412043662272e-39 2.468698333167245380e-39 -6.457607917043447482e-39 -9.484478461012875622e-40 3.539049336575541753e-39 -5.397997866364200832e-40 9.988217232968360863e-40 2.620988647673137849e-39 -1.191469433575283288e-39 6.263638782313141979e-39 4.878900863239715596e-41 -1.591226254284009802e-39 -4.880304964300969063e-39 6.562300326611618891e-39 3.089420303521494999e-39 1.278841794124399957e-39 -5.029421337785165822e-39 -1.032466899425274944e-39
2.664564826018246686e-39 -1.456771492958068848e-01 -2.380035376732485554e-40 5.458687245845794678e-02 2.976074875936117846e-39 -2.569146209686976917e-39 7.252750396728515625e-01 -1.928143246658554220e-39 5.680793909449592165e-39 3.916159772802314900e-39 2.426326721906661987e-01 -1.697462201118469238e-01 -1.795579075813293457e+00 -1.005688011646270752e-01 -4.680336870844889017e-39 6.539359669452157310e-39 4.491455850838546924e-39 -4.132514650500209356e-39 2.798024117946624756e-01 3.455686090932858386e-39 -7.777795195579528809e-02 -3.840409781716308263e-39 -9.835711121559143066e-01 -3.672198578715324402e-02 -1.750310324132442474e-02 -2.195793092250823975e-01 1.338557600975036621e-01 6.088936100168838385e-40
2.772099068872068823e-39 -6.621510791923199711e-39 3.835216569607520491e-39 5.163734394292235213e-39 3.966734035678261872e-39 -5.495189125252841494e-39 -8.595704910014860395e-40 -3.341575554385959882e-39 5.674607176729598097e-39 -3.056104432532172473e-39 2.972516979135197135e-39 -6.608122786395040409e-39 6.099475265919025334e-39 -4.346861467498726350e-39 -5.636591350690930135e-39 2.999584460272095302e-39 3.317764690880152591e-39 4.145267867824029516e-39 -3.028877203370341278e-39 2.222791472155204856e-39 -8.403993267110582171e-40 -3.025361345523350312e-40 -3.242446299721157998e-39 -8.424326107827935267e-40 -1.729150456933644247e-39 6.133867334128949319e-39 -3.580251715322084350e-39 2.870735066477428372e-39
4.660390788503689571e-39 5.739912986755371094e-01 4.884042227305323350e-39 1.144048124551773071e-01 -2.542842436213135776e-39 2.182499937410473391e-39 1.440733969211578369e-01 -6.688310689717563741e-39 2.869231473225207843e-39 -4.425698519101640558e-39 7.522322982549667358e-02 -9.873201698064804077e-02 8.959265351295471191e-01 1.069709584116935730e-01 1.036750668830715910e-40 -3.902448067328896564e-39 -4.815043692220433682e-40 1.337455306290178405e-39 5.110618472099304199e-01 -2.915004887562377993e-39 3.263674378395080566e-01 -4.717511917804962089e-39 2.953772246837615967e-01 4.708320200443267822e-01 3.053634464740753174e-01 3.131845891475677490e-01 -8.469129204750061035e-01 2.618166432565987668e-39
5.876374537413871208e-39 -3.980663716793060303e-01 -3.931276980635451026e-39 -4.083833694458007812e-01 -1.263365853884396677e-39 3.747229039032565227e-39 6.328644156455993652e-01 2.479024501550854957e-39 -1.983706132067497542e-40 -9.339654264724905778e-42 -7.781007885932922363e-02 3.537389338016510010e-01 -2.954238891601562500e+00 -4.848887026309967041e-01 5.444640085749252368e-39 -3.710601899772043159e-39 6.553622085222055298e-39 -5.353566895955853857e-39 1.634065508842468262e-01 -1.833823248323315108e-40 -3.728102147579193115e-01 5.626038171956099938e-39 -5.157700777053833008e-01 4.977359473705291748e-01 -2.180705070495605469e-01 -6.377199888229370117e-01 8.498540520668029785e-01 4.534262716326741436e-39
-7.220190337433619958e-41 2.861766517162322998e-01 2.242357802612572277e-41 5.922446027398109436e-02 3.961914970259448827e-39 2.156539482060391830e-39 7.319125533103942871e-01 9.973321430292588057e-40 -1.874124592157296847e-39 6.018191547197399995e-39 4.917580187320709229e-01 -2.388170361518859863e-01 -5.648290365934371948e-02 2.653535306453704834e-01 5.661534463355911879e-39 1.905265647929987257e-39 -3.825577037471430074e-39 -6.207414484029037343e-39 8.233535289764404297e-01 -2.970231461339883358e-39 5.146945118904113770e-01 -5.586119382602878874e-39 -4.055196344852447510e-01 6.075407266616821289e-01 2.220864295959472656e-01 5.220215320587158203e-01 -1.229021787643432617e+00 4.745142720924518832e-39
