-1.511370837688446045e-01 1.260488033294677734e+00 1.266213178634643555e+00 5.692847073078155518e-02 -8.118636608123779297e-01 3.472222814110355552e-39 3.204689919948577881e-01 -5.075834989547729492e-01 -5.007591910307913821e-39 -1.076008915901184082e+00 6.349591627517897608e-40 5.509785413742065430e-01 -1.633053541183471680e+00 4.057892784476280212e-02
4.824686646461486816e-01 -7.903058528900146484e-01 -1.677931785583496094e+00 5.332848429679870605e-01 -1.486381292343139648e+00 2.580046910440959669e-39 3.438984453678131104e-01 -2.116714715957641602e+00 1.108899322863407766e-39 6.339866667985916138e-02 -4.097916591416029623e-39 2.499413639307022095e-01 4.839209318161010742e-01 1.968021690845489502e-01
7.448955774307250977e-01 -1.195686310529708862e-01 -1.326467037200927734e+00 -4.235562384128570557e-01 1.058752775192260742e+00 -1.709547692716204381e-39 4.682347178459167480e-01 6.679770350456237793e-01 6.055984566780240311e-39 8.725021481513977051e-01 5.722482538763255473e-40 5.592050552368164062e-01 -1.441786736249923706e-01 7.940530180931091309e-01
