2.870047028931444887e-39 5.279823564270760358e-39 -1.629931519167125575e-39 7.713797721492036771e-40 1.951364163510880764e-40 3.011576772529787086e-39 -1.439630983816422442e-39 -1.738766166995841142e-39 3.552769449839746037e-39 4.156127930922546848e-39 4.473879364200520743e-39 -2.403650058453287371e-39 4.568141909298722538e-39 -6.535499092182942439e-39
-8.032581210136413574e-01 -2.331628650426864624e-01 1.107015967369079590e+00 -2.366966962814331055e+00 2.461951255798339844e+00 8.662158995866775513e-02 1.214434742927551270e+00 -1.930969506502151489e-01 -3.945477604866027832e-01 -2.060369551181793213e-01 7.290781289339065552e-02 -8.459041267633438110e-02 -7.110191881656646729e-02 -4.499277099967002869e-02
1.453212276101112366e-02 -4.440951347351074219e-01 2.516953349113464355e-01 4.222029447555541992e-01 2.937053442001342773e-01 1.838004946708679199e+00 3.289115190505981445e+00 2.386062443256378174e-01 1.929312795400619507e-01 2.011040896177291870e-01 1.714539527893066406e-01 2.694345265626907349e-02 2.834999002516269684e-02 -7.926005870103836060e-02
4.059498592718100438e-39 -5.654345802233925567e-39 5.522192146660380719e-39 2.530918787580195907e-39 -3.708965183165711772e-39 6.750391014284081787e-40 -4.963683624226760003e-39 4.554674029758096721e-39 1.721021524542095983e-39 -5.529768967456985005e-39 6.466764001209345837e-39 6.505630415415858963e-39 4.349574381325659195e-40 4.063192415470060655e-39
-3.051033133389780960e-40 -5.861802434683357435e-39 -2.703581179160442568e-39 7.703638307625681847e-41 -3.064132471434289350e-39 1.679338500422289975e-39 6.177933966936571842e-39 3.294012681909846941e-39 -3.955288229821656767e-39 1.628537227195122382e-39 2.812875452885456675e-39 3.825209897273776972e-39 4.142269089110374408e-39 5.416764055398438782e-39
4.521899059976003575e-39 1.761492425490261025e-39 -9.244099722442596502e-40 -2.391612904644737193e-39 -3.627371777483470649e-39 4.977747055614723867e-39 -2.831976552252668257e-39 6.417809639358158353e-39 5.038784814123784249e-39 3.165250168619968150e-39 1.927023609185558691e-39 3.588257333448772030e-39 5.670718573491096730e-40 4.858531588762290055e-39
-2.264742144281696905e-39 -4.173363902033742098e-39 4.442606586372183801e-39 -6.482508990754499482e-39 3.631951220864884151e-39 -5.591103801240482248e-39 -2.911767888109787665e-39 8.834430116397236231e-40 1.557349863908957350e-39 -3.389815254020341710e-39 4.795848705856112338e-39 -2.654311525154781999e-39 -5.761458254249985935e-39 2.759595282674898480e-39
-4.213739335536956787e-01 -5.360347218811511993e-03 -3.175897896289825439e-01 -2.833430767059326172e-01 2.340601086616516113e-01 -4.538282871246337891e+00 2.528538465499877930e+00 -5.876159295439720154e-02 -1.279567629098892212e-01 -1.566325873136520386e-01 -1.036688312888145447e-01 3.161341324448585510e-02 -2.600356563925743103e-02 2.094700634479522705e-01
2.141284946977751871e-39 9.266674640702869305e-40 -5.544816110366904891e-39 -1.433528329004287864e-39 -6.290339123252387043e-39 6.137656445176483625e-39 -3.320668181298233612e-39 4.885456137455827090e-39 6.163345048624486171e-39 5.928375322126500845e-39 -2.665104325927011740e-39 -1.176668919195084570e-39 3.040973211714393099e-39 3.761618972962716774e-39
-5.063734933281087617e-39 2.709933265099226963e-39 4.463797021749703685e-39 -2.405375056862871221e-39 1.971126675753253659e-39 4.884391150622940229e-39 -1.059607248082318001e-39 -1.170312629360907199e-39 -3.569513565189963277e-39 6.448985727592456883e-40 -6.104428855990413562e-39 2.194475434086593278e-40 -1.542674065092083540e-39 7.690045712521731122e-40
2.764729261398315430e-01 1.016800999641418457e+00 -2.973186671733856201e-01 1.029587030410766602e+00 2.566009521484375000e+00 -3.575618982315063477e+00 -2.398486435413360596e-01 7.123128324747085571e-02 2.874346915632486343e-03 2.064705081284046173e-02 6.825871765613555908e-02 -7.833965122699737549e-02 -2.605242654681205750e-02 1.049444265663623810e-02
2.186291664838790894e-01 6.667968034744262695e-01 -1.128882169723510742e+00 -5.344372987747192383e-01 7.424389123916625977e-01 3.081997632980346680e+00 2.111568689346313477e+00 -1.349094510078430176e-01 -2.641075849533081055e-01 -1.063816398382186890e-01 -2.135497331619262695e-01 1.350322831422090530e-02 -1.016867458820343018e-01 1.029379069805145264e-01
-1.069456974988057140e-40 6.401791396612461369e-39 -2.611655999900734568e-39 -4.746485164853342007e-39 -5.218375225311652805e-39 3.393017221011323917e-39 4.757576442198472934e-39 -3.988407919025973818e-39 -6.476835133272448297e-39 6.146155320362613640e-39 -6.399260651585890749e-39 1.213642179176294868e-39 5.463662712402461760e-39 6.135331691024168753e-39
-2.711832821369171143e-01 1.388508081436157227e+00 -7.649994492530822754e-01 -1.027817964553833008e+00 -4.692862629890441895e-01 -2.604583263397216797e+00 -2.239368915557861328e+00 -6.469509098678827286e-03 -3.331577181816101074e-01 -1.731995493173599243e-01 -1.893536150455474854e-01 5.422924458980560303e-02 1.483433991670608521e-01 2.680894732475280762e-01
-6.814516186714172363e-01 8.538256287574768066e-01 -6.432814598083496094e-01 -4.552061259746551514e-01 -2.328144609928131104e-01 -4.219272613525390625e+00 3.256543636322021484e+00 -5.230038613080978394e-02 -2.869921922683715820e-01 -2.789167314767837524e-02 -2.579885125160217285e-01 2.440424859523773193e-01 1.382725983858108521e-01 1.040373593568801880e-01
-3.505802154541015625e-01 -2.886969037353992462e-02 -4.779991507530212402e-01 3.905523419380187988e-01 -6.207252666354179382e-02 -4.681920051574707031e+00 2.818495988845825195e+00 1.305679827928543091e-01 -2.173392772674560547e-01 -1.509253978729248047e-01 -1.688831448554992676e-01 -1.251053512096405029e-01 -2.618541419506072998e-01 -3.226067423820495605e-01
4.776831684396760245e-39 1.506157628410243132e-39 1.665496474191689432e-39 -6.037191753075180190e-39 2.606235777440726175e-39 3.218503714159704173e-39 -5.107732902463958224e-42 -1.910457458740310704e-39 3.484010536792255913e-39 1.908302261702179135e-40 5.495465181050313483e-39 -2.972630484310807445e-40 -1.523833607239236375e-39 -2.291558792993480929e-39
-3.068043495448219915e-39 -4.934449735664015669e-39 2.183427596993856420e-39 -3.947255987024146915e-39 -3.093044061350238976e-40 -1.764052597784582466e-40 1.621477485531853953e-39 6.038920955380157014e-39 3.065477717960041175e-39 2.218965927347598106e-39 -2.744723302073019197e-41 3.903643374918965633e-39 6.038182471089457835e-39 -2.205181354354034880e-39
1.893234099315294377e-39 6.067733053105139578e-39 -6.260195791986295903e-39 -2.849459151893584674e-39 -6.500772113640044823e-39 2.480624784397113898e-39 4.584654810402326182e-39 -5.307796284215612357e-39 5.686319229294424918e-39 -6.560395961998601464e-39 5.217364889118874612e-39 4.357537960498417131e-39 -1.305654238940791007e-39 5.399867198515610138e-39
9.139413386583328247e-02 1.266874074935913086e-01 -4.664797782897949219e-01 -3.308631181716918945e-01 -7.254797816276550293e-01 -1.905118703842163086e+00 -2.199160337448120117e+00 1.126871332526206970e-01 -2.936038970947265625e-01 1.046598851680755615e-01 6.471512466669082642e-02 1.245349459350109100e-02 -1.976745873689651489e-01 -1.423550844192504883e-01
-4.019129986557831108e-39 -5.998274892123951370e-39 -4.623699189513808561e-39 -4.868562083169927095e-39 1.327524304073508427e-39 1.541503980874372318e-39 -6.478250444721416363e-39 1.923091565694663255e-39 -5.692074362087406942e-40 1.671345493981781218e-39 1.318746570492977772e-39 -2.286806989900955474e-39 4.400449923371436004e-39 -6.058752131247281825e-40
-5.484694838523864746e-01 3.535393774509429932e-01 -1.064129590988159180e+00 -1.078043222427368164e+00 1.042582631111145020e+00 2.655400276184082031e+00 -1.805880069732666016e+00 -2.572287023067474365e-01 -5.532464981079101562e-01 -1.887856870889663696e-01 -2.011312842369079590e-01 1.048320382833480835e-01 -1.428575627505779266e-02 2.391029149293899536e-02
-2.964151227303177977e-39 -4.033483486727910209e-40 -1.152137788278614322e-39 -5.272414899289875051e-39 -5.550142445829803520e-39 -3.224855800098488569e-39 5.893162093016482517e-39 -6.502533545809701118e-39 -3.316300333984933157e-39 3.849764850264140742e-39 3.148978290852228374e-39 5.932411061703756318e-40 4.669406742823155444e-41 4.739971929591160257e-39
4.843037431642250553e-39 -1.103016671910172184e-39 -6.152470972541325591e-40 -2.887539437661611578e-39 -8.906947311926045514e-40 -6.491180225651741450e-39 2.534890067428092439e-39 -5.375296831242138795e-39 -2.394446330139601973e-39 -4.330565767657093052e-39 -4.575322162629922901e-39 6.490932195823555957e-39 1.527341057295441392e-39 4.788870239503774749e-39
-4.133733808994293213e-01 -1.018118619918823242e+00 7.467600703239440918e-01 2.976418733596801758e-01 1.790728449821472168e+00 1.375476360321044922e+00 -1.786837220191955566e+00 3.233287036418914795e-01 3.401742279529571533e-01 2.676827087998390198e-02 -3.467061743140220642e-02 -3.799085970968008041e-03 6.344623118638992310e-02 -4.899377748370170593e-02
-3.984509408473968506e-02 3.327698409557342529e-01 -2.083801925182342529e-01 -1.566901952028274536e-01 -7.448850274085998535e-01 -2.655510187149047852e+00 -1.018848419189453125e+00 -2.401267737150192261e-01 -4.546340554952621460e-03 -2.132987678050994873e-01 3.762009367346763611e-02 5.482598766684532166e-02 -1.686995327472686768e-01 1.986411660909652710e-01
6.011281744469814322e-39 -2.742559697244101679e-39 -3.463190044209317781e-39 -6.350638397470748246e-39 4.977655971214542754e-39 3.256298135041008815e-39 6.381633718203148875e-39 -4.878574360697527913e-39 6.513060099873709144e-39 3.936363694060950112e-39 6.517779673101555127e-39 1.919891000002145373e-40 1.408515151416089879e-39 -2.617792285876012942e-39
1.750038713216781616e-01 7.834001183509826660e-01 -2.230777591466903687e-01 -5.992374420166015625e-01 3.686540722846984863e-01 3.551447153091430664e+00 2.646992921829223633e+00 -3.647052682936191559e-03 -2.354535758495330811e-01 -2.035693228244781494e-01 7.445704191923141479e-02 -4.195358604192733765e-02 -5.619216337800025940e-02 4.268547892570495605e-02
