5.850440263748168945e-02 -2.186161652207374573e-02 -7.296750694513320923e-02 6.027953326702117920e-02 -1.242343187332153320e-01 1.761974021792411804e-02 -7.776382379233837128e-03 -9.629226475954055786e-02 9.604018996469676495e-04 -9.606057778000831604e-03 -8.368939161300659180e-02 1.174772530794143677e-01 -4.611652716994285583e-02 -2.504933811724185944e-02 -3.881034627556800842e-02 -5.206330213695764542e-03 2.008872851729393005e-02 5.719640105962753296e-02 -9.913451969623565674e-02 -4.321603104472160339e-02 6.574468314647674561e-02 9.295286238193511963e-02 -6.160957738757133484e-02 1.343700289726257324e-01 8.295200020074844360e-02 -1.143279299139976501e-01 1.803063973784446716e-02 2.181007713079452515e-02
-8.688052743673324585e-02 -4.672752227634191513e-03 -2.364628016948699951e-02 1.228192001581192017e-01 2.149067260324954987e-02 -1.947068423032760620e-02 -9.289810806512832642e-02 -1.380925532430410385e-02 -1.030337288975715637e-01 8.459533751010894775e-02 -9.848638623952865601e-02 1.103782467544078827e-02 -1.411974080838263035e-03 -8.538894355297088623e-02 -1.893761940300464630e-02 1.159742325544357300e-01 7.090607285499572754e-02 -1.308191865682601929e-01 -1.930309925228357315e-03 -4.249278828501701355e-02 -6.800273805856704712e-02 -5.122585222125053406e-02 3.349568322300910950e-02 6.093069165945053101e-02 4.258294403553009033e-02 8.823933452367782593e-02 3.891387721523642540e-03 3.165668249130249023e-02
-8.501283824443817139e-02 -1.581206545233726501e-02 -2.531711384654045105e-02 1.046889349818229675e-01 3.197317942976951599e-02 -9.441246278584003448e-03 -2.625136673450469971e-01 -2.217588201165199280e-02 -1.785412281751632690e-01 1.855976507067680359e-02 -1.732877492904663086e-01 7.309591770172119141e-02 -9.155461937189102173e-02 -1.881950795650482178e-01 -9.827898442745208740e-02 2.120770812034606934e-01 1.315316110849380493e-01 -1.294623613357543945e-01 4.683985933661460876e-02 -2.064921110868453979e-01 -6.639885157346725464e-02 -9.822034835815429688e-02 6.859549134969711304e-02 1.076331585645675659e-01 6.651666481047868729e-03 1.324549764394760132e-01 8.351568132638931274e-02 1.070655956864356995e-01
8.921696990728378296e-02 7.719734217971563339e-03 4.653057549148797989e-03 4.336506128311157227e-02 1.697510480880737305e-01 -1.244994774460792542e-01 -1.715186401270329952e-03 6.955611705780029297e-02 6.767141073942184448e-02 4.031084012240171432e-03 1.147648692131042480e-01 -3.431354463100433350e-02 -1.144805848598480225e-01 1.160305142402648926e-01 8.515484631061553955e-03 -6.148037314414978027e-02 -3.478309884667396545e-02 1.323094516992568970e-01 1.274705305695533752e-02 -1.718095317482948303e-02 8.326996117830276489e-02 3.450652211904525757e-02 1.884272843599319458e-01 -8.053197525441646576e-03 7.062386721372604370e-02 6.608784198760986328e-02 -1.081040948629379272e-01 -8.250859379768371582e-02
-6.244634278118610382e-03 1.508552432060241699e-01 -1.027768198400735855e-02 9.174752980470657349e-02 -1.504560112953186035e-01 1.385429352521896362e-01 -4.517355561256408691e-02 -2.492998838424682617e-01 -2.199495881795883179e-01 1.417202204465866089e-01 -2.115983664989471436e-01 9.820143878459930420e-02 1.167987734079360962e-01 -9.489171952009201050e-02 -1.150013059377670288e-01 2.743812277913093567e-02 -5.640996154397726059e-03 -1.429111808538436890e-01 6.556367129087448120e-02 -7.201100140810012817e-02 -3.396237641572952271e-02 2.401051074266433716e-01 -1.255902200937271118e-01 5.037295073270797729e-02 -7.546462118625640869e-02 -2.603085637092590332e-01 1.954148896038532257e-02 1.871259659528732300e-01
1.281509846448898315e-01 1.314066350460052490e-01 -1.912660314701497555e-03 -5.439228191971778870e-02 -2.184274047613143921e-01 1.682428121566772461e-01 -1.075096651911735535e-01 -3.325776383280754089e-02 -1.438196450471878052e-01 1.248840019106864929e-01 -1.700402796268463135e-01 1.487588584423065186e-01 5.315805971622467041e-02 9.186419099569320679e-02 -2.416102215647697449e-02 -2.099635638296604156e-02 -1.221484392881393433e-01 1.414325553923845291e-02 1.522974371910095215e-01 -3.448659554123878479e-02 -9.004254639148712158e-02 1.388393938541412354e-01 3.072937577962875366e-02 -1.004428490996360779e-01 -6.767355650663375854e-02 -6.296978592872619629e-01 -5.110675841569900513e-02 -4.717869684100151062e-02
-7.915150374174118042e-02 -8.214961271733045578e-04 4.441298171877861023e-02 8.159547299146652222e-02 -1.941399089992046356e-02 5.489666014909744263e-02 -5.410516634583473206e-02 -6.067372485995292664e-02 -8.164031803607940674e-02 8.159895986318588257e-02 -6.096286326646804810e-02 4.203107953071594238e-02 1.144156046211719513e-02 -9.320347756147384644e-02 -2.013939991593360901e-02 5.085603520274162292e-02 3.564910590648651123e-02 -8.116227388381958008e-02 5.364817101508378983e-03 -9.760970622301101685e-02 -5.346079915761947632e-02 -1.256713643670082092e-02 -2.599029056727886200e-02 4.199338331818580627e-02 -2.412299811840057373e-02 -1.277711614966392517e-02 6.068784743547439575e-02 3.280051425099372864e-02
4.540817439556121826e-02 -7.412006705999374390e-02 4.009584710001945496e-02 1.166661530733108521e-01 4.616638645529747009e-02 -1.540818810462951660e-01 -1.288364827632904053e-01 -1.433788686990737915e-01 -1.009907647967338562e-01 -6.948117911815643311e-02 -1.848907768726348877e-01 1.735377311706542969e-01 -1.456095278263092041e-01 -4.329989105463027954e-02 -2.247026562690734863e-01 2.301667928695678711e-01 1.452889144420623779e-01 3.511848673224449158e-02 -5.623498558998107910e-02 -1.800756007432937622e-01 1.323388367891311646e-01 -4.927648697048425674e-03 1.081275120377540588e-01 2.497509866952896118e-01 1.434192955493927002e-01 -2.010192349553108215e-02 2.860427275300025940e-02 1.052470952272415161e-01
2.320019900798797607e-01 -1.150087043642997742e-01 1.253194408491253853e-03 -1.402582079172134399e-01 -6.459809839725494385e-02 -1.800866052508354187e-02 1.051889434456825256e-01 4.198559746146202087e-02 1.280578672885894775e-01 -1.080777347087860107e-01 6.862883269786834717e-02 1.443090140819549561e-01 -9.743545949459075928e-02 5.177374184131622314e-02 2.383995801210403442e-02 -8.199889212846755981e-02 -7.854872941970825195e-02 2.629275321960449219e-01 -1.402551978826522827e-01 1.086326874792575836e-02 6.704647094011306763e-02 4.070086777210235596e-02 1.010865047574043274e-01 6.990752369165420532e-02 1.070889383554458618e-01 -7.410141080617904663e-02 -6.157905980944633484e-02 -1.343491077423095703e-01
-7.380148768424987793e-02 8.986489474773406982e-02 1.699847579002380371e-01 4.460003972053527832e-02 2.297588437795639038e-02 8.967296779155731201e-02 4.672026634216308594e-02 8.699275553226470947e-02 1.075284834951162338e-02 6.056442856788635254e-02 3.119548037648200989e-02 -4.374592378735542297e-02 1.313056498765945435e-01 2.913955599069595337e-02 5.932380631566047668e-02 -1.094977837055921555e-02 -4.694816470146179199e-02 -7.433031499385833740e-02 1.670514643192291260e-01 5.629111081361770630e-02 -6.641940772533416748e-02 -9.822018444538116455e-02 3.775947261601686478e-03 -1.605122238397598267e-01 -1.437040865421295166e-01 1.537704723887145519e-03 1.662504859268665314e-02 2.317258156836032867e-02
-7.702112197875976562e-02 1.864808648824691772e-01 5.773958750069141388e-03 2.322347313165664673e-01 -6.855516135692596436e-02 1.307706087827682495e-01 -1.946146488189697266e-01 -7.216177135705947876e-02 -1.818990558385848999e-01 2.260582894086837769e-01 -1.216575652360916138e-01 1.030005738139152527e-01 4.219996184110641479e-02 -1.115659400820732117e-01 -9.994284808635711670e-02 1.788520365953445435e-01 1.665545254945755005e-01 -1.446914821863174438e-01 1.067236736416816711e-01 -1.803955733776092529e-01 3.854471445083618164e-02 -7.515830919146537781e-03 -1.948998719453811646e-01 7.587616145610809326e-02 -8.915045112371444702e-02 4.604439064860343933e-02 1.473263651132583618e-01 2.125082910060882568e-01
-1.727176457643508911e-01 1.204314753413200378e-01 1.609880626201629639e-01 7.221295684576034546e-02 -1.604210585355758667e-02 1.844506263732910156e-01 4.557699710130691528e-02 1.056275609880685806e-02 -7.757793366909027100e-02 1.399462819099426270e-01 -5.483929067850112915e-02 -1.090394798666238785e-03 8.334413915872573853e-02 -1.055548191070556641e-01 -1.073060790076851845e-03 9.903227537870407104e-02 6.695283949375152588e-02 -2.045107334852218628e-01 2.054392695426940918e-01 -2.136041596531867981e-02 -2.248429320752620697e-02 2.317217364907264709e-02 -9.673422574996948242e-02 -1.441549956798553467e-01 -2.017191648483276367e-01 7.813038676977157593e-02 1.645810604095458984e-01 1.432937532663345337e-01
9.910360723733901978e-02 2.629091031849384308e-02 -8.654769062995910645e-01 -1.551496516913175583e-02 9.940095990896224976e-02 -3.196832910180091858e-02 -2.185252755880355835e-01 1.768098026514053345e-01 6.608554720878601074e-02 -3.673813864588737488e-02 1.585062891244888306e-01 -3.976266458630561829e-02 1.785718053579330444e-01 6.088623404502868652e-02 5.630211532115936279e-02 2.432509325444698334e-02 4.164415970444679260e-02 6.638064514845609665e-03 -5.302193015813827515e-02 -1.534439902752637863e-02 -1.697543114423751831e-01 1.694197803735733032e-01 -7.831846922636032104e-02 7.232746575027704239e-03 -4.744652286171913147e-02 -3.202946111559867859e-02 -8.696094155311584473e-03 -4.459885507822036743e-02
-1.427456643432378769e-02 -3.182613477110862732e-02 1.036586612462997437e-01 -9.932779520750045776e-02 8.920028805732727051e-03 6.263422966003417969e-02 9.843686968088150024e-02 7.804455608129501343e-02 1.056545879691839218e-02 -6.754297297447919846e-03 9.499543346464633942e-03 8.000610396265983582e-03 2.893018908798694611e-02 -8.594486862421035767e-02 2.978556603193283081e-02 1.124010188505053520e-03 -1.504601445049047470e-02 -1.652058400213718414e-02 7.535770535469055176e-02 2.300298307090997696e-03 -4.027096182107925415e-02 -4.636970534920692444e-02 -2.455212408676743507e-03 -1.176274046301841736e-01 -8.481347560882568359e-02 2.516108751296997070e-02 4.268172383308410645e-02 -3.788784146308898926e-02
