-8.163153380155563354e-02 1.163360662758350372e-03 -1.059636324644088745e-01 -6.365252193063497543e-03 -6.543814390897750854e-02 1.072780340909957886e-01 3.502104431390762329e-02 -1.405594050884246826e-01 -1.189933642745018005e-01 9.352339804172515869e-02 -5.672020837664604187e-03 -1.005918979644775391e-01 9.815083146095275879e-01 -7.015767693519592285e-02
-5.575616285204887390e-02 -3.062457442283630371e-01 -5.444498658180236816e-01 3.200716674327850342e-01 -4.411735832691192627e-01 -2.202551066875457764e-02 -2.809350788593292236e-01 -2.067182958126068115e-01 4.837364256381988525e-01 -7.233682274818420410e-02 -7.234326601028442383e-01 -4.196158349514007568e-01 1.610846221446990967e-01 7.667943835258483887e-02
-2.477036118507385254e-01 -1.223322153091430664e-01 -2.802555263042449951e-01 -1.756192892789840698e-01 8.558435738086700439e-02 1.782318502664566040e-01 -5.736165679991245270e-03 -6.407146453857421875e-01 -2.203597277402877808e-01 4.055835008621215820e-01 3.142264485359191895e-02 4.503628015518188477e-01 1.286592520773410797e-02 2.709563970565795898e-01
2.412647902965545654e-01 -1.457476466894149780e-01 -1.146750599145889282e-01 -2.547954022884368896e-01 5.650464892387390137e-01 8.172786831855773926e-01 4.908456280827522278e-02 1.862135715782642365e-02 1.929303109645843506e-01 -1.044429168105125427e-01 9.873741120100021362e-02 -1.574879884719848633e-02 -9.712874144315719604e-02 -1.358465291559696198e-02
