1.074798107147216797e-01 1.962558627128601074e-01 -5.527856945991516113e-02 1.944776028394699097e-01 -7.080382108688354492e-02 -2.423372119665145874e-02 -8.129762858152389526e-02 7.097151130437850952e-02 -2.343275770545005798e-02 -1.158657148480415344e-01 5.160872265696525574e-02 7.959009706974029541e-02 6.888943165540695190e-02 1.734746433794498444e-02
1.026435848325490952e-02 1.150440052151679993e-01 -8.880434930324554443e-02 3.387917205691337585e-02 -1.665027886629104614e-01 4.213829338550567627e-02 -1.076039224863052368e-01 1.032902747392654419e-01 1.530190110206604004e-01 3.541482985019683838e-02 9.928674250841140747e-02 -3.772399574518203735e-02 -2.630749531090259552e-02 -7.243034988641738892e-02
-3.084418177604675293e-02 9.831451624631881714e-02 -1.625664532184600830e-02 6.448417436331510544e-03 -9.014093317091464996e-03 -1.549533475190401077e-02 2.285745926201343536e-02 -8.915991783142089844e-01 -6.792768370360136032e-03 3.715675324201583862e-02 -2.871127426624298096e-02 -6.802226416766643524e-03 3.576244786381721497e-02 4.235261306166648865e-02
-1.214219629764556885e-01 -1.914769038558006287e-02 1.587949991226196289e-01 -2.518064156174659729e-02 1.210688264109194279e-03 9.097841382026672363e-02 2.493654191493988037e-01 2.984362095594406128e-02 -4.593371227383613586e-02 9.475494176149368286e-02 -1.174890249967575073e-02 5.744379013776779175e-02 1.165516376495361328e-01 -1.287326365709304810e-01
7.174103707075119019e-02 9.712415933609008789e-02 9.494475275278091431e-02 -5.999425426125526428e-02 -8.324344456195831299e-02 -7.340402156114578247e-02 1.787802129983901978e-01 1.845114529132843018e-01 -1.122677326202392578e-01 -9.214287251234054565e-02 -1.095634400844573975e-01 -2.067019604146480560e-02 -2.803854085505008698e-02 2.050101011991500854e-02
-9.927441179752349854e-02 -1.182015286758542061e-03 -2.442452870309352875e-02 1.075186952948570251e-02 7.284624129533767700e-02 -8.409769088029861450e-02 2.242847532033920288e-02 4.510515928268432617e-02 -1.096564456820487976e-01 2.879072725772857666e-01 1.084160339087247849e-02 -6.155057251453399658e-02 -3.138766065239906311e-02 -1.560757905244827271e-01
-1.128742694854736328e-01 1.078618094325065613e-01 2.792979180812835693e-01 1.159789413213729858e-01 -8.321029692888259888e-02 1.276183594018220901e-02 -9.941615909337997437e-02 -2.282158881425857544e-01 7.429201900959014893e-02 1.853884756565093994e-02 4.190415889024734497e-02 -1.375763677060604095e-03 1.602024286985397339e-01 7.202873378992080688e-02
8.081194944679737091e-03 1.927884221076965332e-01 -8.606941998004913330e-02 -7.440485060214996338e-02 1.751405745744705200e-02 1.538919210433959961e-01 -6.736306846141815186e-02 -3.759688138961791992e-02 -9.501059353351593018e-02 1.371736358851194382e-02 -1.161514222621917725e-01 -1.492061465978622437e-01 -2.460572868585586548e-02 -1.271182596683502197e-01
-7.148061692714691162e-02 -3.464491292834281921e-02 -2.041473612189292908e-02 6.004868075251579285e-03 1.624855995178222656e-01 1.666204445064067841e-02 1.929181814193725586e-02 -2.895685844123363495e-02 2.705026268959045410e-01 -9.744007547851651907e-05 -2.828357815742492676e-01 1.631139777600765228e-02 9.132578969001770020e-02 -9.218781255185604095e-03
7.095451653003692627e-02 -1.099621281027793884e-01 8.944110572338104248e-02 1.867164969444274902e-01 9.593195468187332153e-02 -7.017228007316589355e-02 1.272445917129516602e-01 -2.983476594090461731e-02 -1.141613796353340149e-01 1.169361025094985962e-01 5.227046832442283630e-02 -1.421767324209213257e-01 -3.190031275153160095e-02 3.728504478931427002e-02
-2.118347734212875366e-01 -4.027812555432319641e-02 -5.629459396004676819e-02 9.535908699035644531e-02 -6.324364244937896729e-02 -5.886002629995346069e-02 -1.714480817317962646e-01 9.945896267890930176e-02 1.158859133720397949e-01 -2.467712759971618652e-01 -1.745797879993915558e-02 4.969277605414390564e-02 1.947020292282104492e-01 -5.078740417957305908e-03
-4.095349088311195374e-02 2.024229243397712708e-02 -8.167660236358642578e-02 2.673510275781154633e-02 9.987761825323104858e-02 -1.209975965321063995e-02 3.779391944408416748e-02 -1.978347599506378174e-01 5.550165660679340363e-03 -2.019655406475067139e-01 9.048945456743240356e-02 -9.796227514743804932e-02 6.271575391292572021e-02 5.339587852358818054e-02
2.162256687879562378e-01 1.226679161190986633e-01 1.539417654275894165e-01 -3.668343182653188705e-03 2.314101904630661011e-02 -1.905981823801994324e-02 4.887096956372261047e-02 6.514621526002883911e-02 4.374316893517971039e-03 1.305762678384780884e-01 3.184943459928035736e-03 1.176591590046882629e-01 7.870973646640777588e-02 -1.202088501304388046e-02
-1.571332104504108429e-02 -8.783125877380371094e-02 -8.570580184459686279e-02 -5.401462316513061523e-02 -7.529670745134353638e-02 -9.274276345968246460e-02 1.135166436433792114e-01 -2.702097222208976746e-02 2.489985376596450806e-01 5.278682708740234375e-02 -8.585365861654281616e-02 5.958146974444389343e-02 -2.004254981875419617e-02 -4.001501016318798065e-03
-3.738858969882130623e-03 -5.319103971123695374e-02 4.200974851846694946e-02 3.097055014222860336e-03 1.203045025467872620e-01 8.422110229730606079e-02 -5.471637472510337830e-02 5.470688338391482830e-04 -7.936953566968441010e-03 2.281168252229690552e-01 1.609121263027191162e-02 -1.055872291326522827e-01 -4.052570834755897522e-02 4.484804719686508179e-02
6.963519006967544556e-02 8.668407052755355835e-02 5.382220447063446045e-02 -1.179490983486175537e-01 1.389917731285095215e-02 4.959875717759132385e-02 -1.966216415166854858e-01 -9.401221573352813721e-02 -1.879423558712005615e-01 -1.340827196836471558e-01 -7.969822734594345093e-02 -1.517478525638580322e-01 9.700946393422782421e-04 9.261776506900787354e-02
-5.170938372611999512e-02 -1.548899151384830475e-02 -1.949796080589294434e-02 -4.808600619435310364e-02 8.829621970653533936e-02 -4.696416482329368591e-02 -3.929968550801277161e-02 -1.334163825958967209e-02 -1.367679387331008911e-01 -8.173283189535140991e-02 -8.206195384263992310e-02 1.263083368539810181e-01 -1.996475309133529663e-01 3.971638530492782593e-02
-9.471511095762252808e-02 2.690693140029907227e-01 -5.949915573000907898e-02 1.160244718194007874e-01 5.641649942845106125e-03 -9.859319776296615601e-02 1.714325100183486938e-01 -1.876442320644855499e-02 -6.450834125280380249e-02 -1.571967452764511108e-01 -2.070735692977905273e-01 2.260525897145271301e-02 8.777464181184768677e-02 -5.753751844167709351e-02
-1.919468678534030914e-02 1.301259398460388184e-01 -4.375564679503440857e-02 -3.811767324805259705e-02 -8.928322792053222656e-02 4.461392015218734741e-02 -2.263899147510528564e-01 9.970218688249588013e-02 -7.781670987606048584e-02 7.932964712381362915e-02 1.480225026607513428e-01 -1.207278594374656677e-01 9.442127496004104614e-02 -6.509648263454437256e-02
4.445552453398704529e-02 -2.449047006666660309e-02 1.075667291879653931e-01 -3.846266865730285645e-02 -8.640046417713165283e-02 1.989955827593803406e-02 -9.881261736154556274e-03 1.856495812535285950e-02 1.778490543365478516e-01 2.054096460342407227e-01 8.874221891164779663e-02 -1.198579519987106323e-01 -2.489539235830307007e-02 1.316900849342346191e-01
-3.183137252926826477e-02 -1.029849350452423096e-01 -1.010799482464790344e-01 -6.313804537057876587e-02 -4.952494055032730103e-02 5.088319629430770874e-02 -1.458742935210466385e-02 2.527126111090183258e-02 7.145263254642486572e-02 -1.626211218535900116e-02 5.503075569868087769e-02 1.206834837794303894e-01 1.180034130811691284e-02 -1.942627131938934326e-01
-1.335405744612216949e-02 -4.207431152462959290e-02 1.350882500410079956e-01 1.547103673219680786e-01 -5.196300521492958069e-02 9.553278237581253052e-02 2.907938696444034576e-02 1.535690575838088989e-01 1.509584337472915649e-01 -1.703487485647201538e-01 6.377721577882766724e-02 -3.679468855261802673e-02 -7.309930771589279175e-02 -6.211483851075172424e-02
-7.770466059446334839e-02 -6.168400123715400696e-02 2.364681474864482880e-02 -7.044473290443420410e-02 -1.155742555856704712e-01 -4.830127954483032227e-02 2.294743657112121582e-01 -1.224039718508720398e-01 -2.103349566459655762e-02 -6.151220202445983887e-02 -8.131571114063262939e-02 -1.625276952981948853e-01 5.421375855803489685e-02 1.589289680123329163e-02
1.454793512821197510e-01 1.952126473188400269e-01 1.884671673178672791e-02 1.931158080697059631e-02 1.449746489524841309e-01 -1.021518632769584656e-01 4.530430305749177933e-03 -2.080740481615066528e-01 -7.560949772596359253e-02 -2.468729950487613678e-02 1.476900652050971985e-02 4.058068245649337769e-02 -9.957017004489898682e-02 1.698585450649261475e-01
3.677828703075647354e-03 -4.379852861166000366e-02 1.713933646678924561e-01 -1.034381985664367676e-01 5.653763934969902039e-02 -1.656754501163959503e-02 -1.251606345176696777e-01 -1.871625930070877075e-01 -3.992861509323120117e-02 -9.103042632341384888e-02 4.466186463832855225e-02 -8.436088263988494873e-02 -1.309705078601837158e-01 -7.268730551004409790e-02
1.951977238059043884e-02 5.092415492981672287e-03 2.185861347243189812e-03 -4.212220758199691772e-02 -1.963073387742042542e-02 2.601894922554492950e-02 2.103395760059356689e-02 -9.915294125676155090e-03 -4.511896893382072449e-02 2.560754306614398956e-02 -7.181623578071594238e-01 7.844003848731517792e-03 2.433872036635875702e-02 -1.911718770861625671e-02
-1.347329467535018921e-01 -6.043579429388046265e-02 -1.880748197436332703e-02 9.862022846937179565e-02 6.068889051675796509e-02 8.242654800415039062e-02 -1.606205292046070099e-02 3.685156628489494324e-02 1.774998754262924194e-02 -1.161623373627662659e-02 1.166720129549503326e-02 -8.760510012507438660e-03 -1.861459612846374512e-01 -6.830478459596633911e-02
1.826050579547882080e-01 -9.644774347543716431e-02 1.304199825972318649e-02 4.333657398819923401e-02 -2.233881354331970215e-01 -1.466132104396820068e-01 -2.102454937994480133e-02 3.229999169707298279e-02 1.696679554879665375e-02 1.079400815069675446e-02 -1.797210723161697388e-01 -6.069791316986083984e-02 3.840749338269233704e-02 1.002150587737560272e-02
