-4.943921111984387108e-39 6.565048272900159857e-39 -1.550182222263935910e-39 -8.463856737506538357e-40 -1.623571025437555230e-39 -3.583473300491567104e-39 2.703864241450236181e-39 -7.307603335638202047e-40 -2.786155493767711063e-39 2.456062824914428504e-39 -2.207408017613847014e-39 -1.555743975868841109e-39 2.689090351740859634e-39 6.599017148973857747e-39
-2.214914420619606972e-03 -4.678970277309417725e-01 5.104531049728393555e-01 9.442176222801208496e-01 -1.187071084976196289e+00 -2.217374324798583984e+00 -1.707301378250122070e+00 -2.190296500921249390e-01 3.015449643135070801e-01 -2.435631006956100464e-01 -1.023260727524757385e-01 -1.086464449763298035e-01 6.555930525064468384e-02 5.805595591664314270e-02
-6.273756157225567158e-39 5.827715849538656260e-39 -1.500314213814008645e-39 4.489915823826253950e-39 -4.671252252900671228e-39 -1.234609808097987106e-39 -6.562155992869793434e-39 -9.896558300416874578e-40 -4.507734735098608324e-39 -6.067440181726095691e-39 -5.228372088556146050e-39 4.905629230148247157e-39 -2.250008892227785778e-40 -1.056988221252494918e-39
5.136783123016357422e-01 -6.826935410499572754e-01 2.394595444202423096e-01 9.962522983551025391e-01 -1.206952214241027832e+00 -1.538843631744384766e+00 -1.281925082206726074e+00 4.479606077075004578e-02 -2.267778515815734863e-01 2.694779634475708008e-01 3.750476241111755371e-01 4.527110755443572998e-01 -3.332883715629577637e-01 -1.118603497743606567e-01
-6.099538324349919951e-39 -3.233983858295100427e-39 -7.537864699296055988e-41 2.233347453486963703e-39 6.762666388831567184e-41 5.295164979858188456e-39 6.588999266252399630e-39 5.317545117631920109e-39 6.546008830665378567e-39 4.843662410757339421e-39 1.395232243272754938e-39 -2.978642054722760910e-39 2.657981525832848695e-39 -4.349871456600096057e-39
1.633339477032363530e-39 1.739609748671364682e-39 -3.038575590041933337e-40 -7.019328215557300679e-40 4.223970394774368542e-39 -4.912293805644575987e-40 3.473755834630326902e-39 6.211925263785698929e-39 -3.091176130497293995e-39 -3.980545233342647269e-39 -4.344413399081550894e-39 -6.486565749808719827e-39 9.811877834217725882e-40 -1.875364741298224310e-39
3.658245801925659180e-01 8.213292360305786133e-01 -5.266171097755432129e-01 -8.859900236129760742e-01 2.178333759307861328e+00 -3.310196161270141602e+00 -2.006832838058471680e+00 3.817725479602813721e-01 -1.628803163766860962e-01 2.396773546934127808e-01 1.010692864656448364e-01 -1.890147924423217773e-01 -3.557527959346771240e-01 -2.124247401952743530e-01
8.282430625330404290e-40 5.156436431890031566e-39 5.518948140715468767e-39 1.120185380695079843e-39 6.567475321840370440e-39 6.582239402460496713e-39 -2.850657262080582393e-39 5.677219197067099556e-39 2.564981550651003561e-39 1.261451680182128977e-39 2.277866705698563141e-40 -5.176713220668811669e-39 -3.998179173217710767e-39 -5.505881032535639848e-39
2.004435540250254561e-39 2.420360542640360815e-39 -1.276327864679401235e-39 -6.614661245029580005e-39 6.571759091245811406e-39 2.503699966209150661e-39 -1.485142355340763851e-39 -2.254043230506576926e-39 -4.204866492810228311e-39 -4.538894007751334956e-39 3.417154587059318891e-39 -1.374749463619719087e-39 -5.245099388324791391e-39 -2.149395662489263912e-39
-1.378049521503204031e-39 2.165813275297293469e-39 5.771700344725736023e-39 1.984566529324592980e-39 -4.894329159331931832e-39 -3.793229463720955997e-39 -5.465858547096058748e-39 4.861195457142971532e-39 3.825886724432045859e-39 -2.467714621645289358e-39 1.826913445595729435e-39 -1.623880712398171014e-39 -5.385992942420330124e-39 4.636462215926878994e-39
2.355314046144485474e-01 3.871059417724609375e-01 -1.206077113747596741e-01 -5.186271071434020996e-01 5.549184083938598633e-01 -1.214367508888244629e+00 -2.256453514099121094e+00 -1.334609389305114746e-01 -9.915134310722351074e-02 1.042075920850038528e-02 3.256427049636840820e-01 -1.439281851053237915e-01 1.899500340223312378e-01 3.219103440642356873e-02
-8.736150339245796204e-03 -1.094370484352111816e-01 -5.849760770797729492e-01 3.685637712478637695e-01 8.510844707489013672e-01 -3.934711217880249023e+00 2.895131349563598633e+00 8.354238420724868774e-02 1.157227680087089539e-01 -2.253360003232955933e-01 -2.228161990642547607e-01 -5.437660217285156250e-02 -5.141324996948242188e-01 -4.564546942710876465e-01
4.038390517234802246e-01 1.246958851814270020e+00 -1.108575820922851562e+00 -9.077547788619995117e-01 -2.919817686080932617e+00 1.261667609214782715e+00 4.602924585342407227e-01 -9.782901406288146973e-02 -2.502577304840087891e-01 5.818632617592811584e-02 -4.796159639954566956e-02 -8.744392544031143188e-02 -8.335191011428833008e-02 3.140813112258911133e-02
1.873195618391036987e-01 -3.838277459144592285e-01 7.063692063093185425e-02 7.226356267929077148e-01 -6.853404641151428223e-01 5.903218388557434082e-01 -2.564555883407592773e+00 2.379114329814910889e-01 1.917543709278106689e-01 1.811673492193222046e-01 3.197636306285858154e-01 3.044954501092433929e-02 -1.665685474872589111e-01 -1.695272475481033325e-01
-5.599081393397883432e-39 -5.951273940332032681e-39 6.382876669941004988e-39 6.550760633757904022e-39 6.585615130461055197e-39 3.344107700710994827e-39 -5.368010079227649746e-39 4.529585182052825196e-39 -5.674223220950373097e-39 1.636530233635631138e-39 3.559502688960826783e-39 6.573150580620885949e-39 -4.573367351272189781e-39 -3.305735944862388361e-39
6.593809923880426727e-39 -3.508890591026343040e-39 1.937042893205481133e-39 5.143089064017337683e-39 4.077080684549983917e-39 2.793362371769733597e-39 -5.965851648256403753e-39 -6.636356147854256823e-39 -2.898145865738086119e-39 8.551564008388628657e-41 -5.466899711855052087e-40 -5.720031667749151367e-39 -3.030722713447857062e-39 5.700384061980853107e-39
1.870306053842011720e-39 -5.934214532827342357e-39 3.677136089847037877e-39 1.353830880144278217e-39 -6.697511615434320490e-39 -4.865563304456271987e-39 -2.848053649533866883e-39 3.088990104892947280e-39 1.010355810956693656e-39 8.240994229740319450e-40 -4.967828665084232812e-39 -6.483002247813941817e-39 -2.219016374092313799e-39 5.809748400629083456e-39
5.437826972615705107e-39 -6.655203612199425613e-39 -6.644592980227558098e-40 2.109164383578498414e-40 -4.556602216445007670e-39 -3.356849707647100388e-39 2.485903475712225484e-42 5.003047499388108439e-39 -1.003818753620618384e-39 -1.809509318668815207e-39 -4.143582105771446761e-39 -6.590713054274268882e-39 2.868190308466214504e-39 3.612858529288458518e-39
3.053373396396636963e-01 3.993690311908721924e-01 -6.923086047172546387e-01 -6.993626356124877930e-01 1.854850411415100098e+00 -2.981747686862945557e-01 -2.949585676193237305e+00 -2.795871198177337646e-01 -5.690477043390274048e-02 -4.094343781471252441e-01 -6.691833585500717163e-02 -2.523680031299591064e-01 1.347637474536895752e-01 6.861322559416294098e-03
-6.215371056709473655e-39 2.875380370886665141e-39 2.612889142549340407e-40 3.343160422949111250e-39 3.433750164772317699e-39 4.689048743397596405e-39 -3.790382025241447969e-39 -6.579792735341785582e-39 -1.599737741156318741e-39 -2.694444713173044760e-39 -6.670319418734097414e-39 4.783803144256776210e-39 -1.704238172834877649e-39 -2.041677849536615224e-39
5.997345224022865295e-02 2.061755061149597168e-01 5.566588044166564941e-01 3.503853678703308105e-01 -1.207981586456298828e+00 -2.457198619842529297e+00 -2.212273836135864258e+00 -1.234698947519063950e-02 -7.243607193231582642e-02 -3.975552693009376526e-02 -1.423166543245315552e-01 1.083274558186531067e-01 5.184953212738037109e-01 1.831833422183990479e-01
6.535700879161805213e-39 3.274770051397738553e-39 3.320251995654329141e-39 3.563426324660936271e-39 3.970653467482978386e-39 -5.380544693991035235e-39 -7.635325007489847015e-40 1.360318892034102121e-39 -5.760879517984219785e-39 5.518345582375809096e-39 1.949379924885396823e-39 -3.828138611064215840e-39 -6.551628037507321084e-39 -1.804227824756774971e-39
-1.541641354560852051e-01 -8.382783830165863037e-02 -4.548403620719909668e-02 6.995291113853454590e-01 -2.212439537048339844e+00 -2.584328651428222656e+00 1.089744925498962402e+00 1.749401241540908813e-01 1.169415637850761414e-01 -2.293229661881923676e-02 -2.361921593546867371e-03 1.760378777980804443e-01 -1.103060692548751831e-01 3.393842652440071106e-02
-9.391084909439086914e-01 5.909316539764404297e-01 -9.114293456077575684e-01 -7.639966160058975220e-02 -1.521747231483459473e+00 -4.382545948028564453e+00 -1.378564834594726562e+00 -2.232846617698669434e-01 -1.714917570352554321e-01 -1.777079254388809204e-01 -1.226261854171752930e-01 1.844659298658370972e-01 -2.388938367366790771e-01 1.705646961927413940e-01
7.009363919496536255e-02 -2.284136712551116943e-01 6.943463683128356934e-01 1.000443458557128906e+00 1.117801293730735779e-01 -2.833670616149902344e+00 -2.172299861907958984e+00 7.149004191160202026e-02 2.318328768014907837e-01 3.726000487804412842e-01 1.290141697973012924e-02 -3.752723336219787598e-01 2.973622977733612061e-01 1.927206106483936310e-02
-3.748485743999481201e-01 -1.300390213727951050e-01 -2.921929359436035156e-01 -4.740748181939125061e-02 -1.621846675872802734e+00 2.460908174514770508e+00 -1.925245404243469238e+00 -2.936905995011329651e-02 -5.638872738927602768e-03 -1.961933374404907227e-01 -1.326097548007965088e-01 2.855080366134643555e-01 -1.561284661293029785e-01 5.119461193680763245e-02
-3.300150930881500244e-01 5.912842750549316406e-01 -2.732029259204864502e-01 -2.461812645196914673e-01 7.165010571479797363e-01 -5.185989737510681152e-01 3.139375448226928711e+00 -1.278294473886489868e-01 -1.588569432497024536e-01 -2.317062914371490479e-01 6.979125738143920898e-02 -2.096651308238506317e-02 2.319955229759216309e-01 1.166031062602996826e-01
2.199185198225188988e-39 3.684404624981490703e-39 6.591008728250241418e-39 -4.721927409266049588e-39 -1.611805723531084066e-39 9.647827822999219548e-40 -4.019139795647081381e-39 2.710107026108803241e-39 -5.028056473080913450e-39 3.008292128929409715e-39 1.711963531268700366e-39 1.516304430590419133e-39 4.369753079211936561e-39 5.554187994496309267e-39
