6.116676703095436096e-02 6.269931048154830933e-02 1.902739983052015305e-03 -1.031808834522962570e-02 1.136176362633705139e-01 4.474794864654541016e-02 -6.935263425111770630e-02 9.183155745267868042e-02 4.387379065155982971e-02 -1.056171581149101257e-01 1.206851005554199219e-02 8.998469263315200806e-02 5.033682659268379211e-02 -6.837238091975450516e-03
-4.312906786799430847e-02 -7.856275141239166260e-02 -1.734916865825653076e-02 -2.663709968328475952e-02 -1.572476327419281006e-02 -5.675198510289192200e-02 -4.829104617238044739e-02 -6.388777494430541992e-02 8.403128385543823242e-02 2.453801929950714111e-01 1.159437000751495361e-01 -7.761385291814804077e-02 -6.730358302593231201e-02 4.246590659022331238e-02
-5.644993856549263000e-02 2.828235328197479248e-01 2.075297683477401733e-01 1.093224957585334778e-01 1.359634287655353546e-02 5.725219473242759705e-02 -1.581350564956665039e-01 7.469167560338973999e-02 -1.079212352633476257e-01 -6.967613846063613892e-02 -9.020904451608657837e-02 -3.581596910953521729e-02 1.559417545795440674e-01 9.041922166943550110e-03
1.703780581010505557e-04 3.729203343391418457e-02 -1.554904729127883911e-01 -4.125226289033889771e-02 8.649698644876480103e-02 7.993638515472412109e-02 1.948666125535964966e-01 -5.381666496396064758e-02 -1.911293133161962032e-03 -2.399994432926177979e-02 -3.345049619674682617e-01 1.237351372838020325e-01 2.331298403441905975e-02 -9.923913329839706421e-02
2.393870428204536438e-02 3.508871421217918396e-02 4.095562547445297241e-02 -6.261269748210906982e-02 4.436824470758438110e-02 2.116211876273155212e-02 3.345874324440956116e-02 -1.305655762553215027e-02 -4.682934880256652832e-01 -5.713427066802978516e-02 -8.173347264528274536e-02 -6.673134863376617432e-02 -1.182663515210151672e-01 6.364715844392776489e-02
-5.539587140083312988e-02 8.363912999629974365e-02 9.849309921264648438e-03 3.101516515016555786e-02 -8.983400650322437286e-03 -1.726605929434299469e-02 5.965076386928558350e-03 -8.515753746032714844e-01 1.387406233698129654e-02 4.311815276741981506e-02 -6.086526066064834595e-02 -1.686986349523067474e-02 7.173793762922286987e-02 3.814419731497764587e-02
-1.478793025016784668e-01 -1.226655114442110062e-02 -4.592902213335037231e-02 1.093363389372825623e-01 1.331261247396469116e-01 4.984019696712493896e-02 -1.090296655893325806e-01 1.465823352336883545e-01 -1.894906163215637207e-01 5.832908675074577332e-02 5.598254874348640442e-02 -1.339485198259353638e-01 -1.921070367097854614e-02 1.738649792969226837e-03
-5.195504054427146912e-02 5.636290833353996277e-02 4.318103566765785217e-02 -1.174728646874427795e-01 2.872637473046779633e-02 -9.183233976364135742e-02 -2.656811773777008057e-01 4.136171191930770874e-03 -7.270741276443004608e-03 6.545669399201869965e-03 -3.429491072893142700e-02 -4.916414245963096619e-02 9.967509657144546509e-02 8.000964671373367310e-02
1.590918004512786865e-02 8.270546793937683105e-02 -4.990691691637039185e-02 1.730980724096298218e-02 1.111483648419380188e-01 5.728798359632492065e-02 -6.102754548192024231e-02 -2.527880072593688965e-01 -3.847790509462356567e-02 -2.926513254642486572e-01 1.728905737400054932e-01 -4.626971110701560974e-02 -7.396063208580017090e-02 8.233625441789627075e-02
1.001239269971847534e-01 -2.415985986590385437e-02 -9.580115973949432373e-02 -1.357410401105880737e-01 2.488824771717190742e-03 5.468589812517166138e-02 -1.344579309225082397e-01 6.987100094556808472e-02 7.912204414606094360e-02 1.130456402897834778e-01 -5.539067089557647705e-02 5.850421264767646790e-02 -1.092920731753110886e-02 8.064609952270984650e-03
9.522002190351486206e-02 3.988387063145637512e-02 -8.953360468149185181e-02 -4.065292328596115112e-02 -1.502362787723541260e-01 -1.839372217655181885e-01 -2.277236282825469971e-01 1.404471844434738159e-01 6.148738041520118713e-02 1.449868828058242798e-01 1.634936779737472534e-01 -2.904444746673107147e-02 3.704881295561790466e-02 -8.767031878232955933e-02
-8.523508906364440918e-03 -7.466486096382141113e-02 7.671716809272766113e-02 -8.796893805265426636e-02 7.810116559267044067e-02 4.752077162265777588e-02 -5.834084004163742065e-02 9.822557121515274048e-02 3.276570513844490051e-02 -1.246762741357088089e-02 6.992442905902862549e-02 -1.278552263975143433e-01 -6.571145262569189072e-03 -6.133275851607322693e-02
1.730199158191680908e-01 7.701919227838516235e-02 -4.684481769800186157e-02 1.269731670618057251e-01 -1.368227042257785797e-02 -1.472688019275665283e-01 -8.365247398614883423e-02 -6.865642964839935303e-02 2.509611099958419800e-02 -8.313774317502975464e-02 5.742096807807683945e-03 1.336090117692947388e-01 -1.906139999628067017e-01 7.297105342149734497e-02
2.091256380081176758e-01 1.557889580726623535e-01 2.284091338515281677e-02 -6.415297836065292358e-02 2.827915363013744354e-03 6.485498044639825821e-03 1.206169128417968750e-01 6.221576035022735596e-02 -6.956372410058975220e-02 1.233484819531440735e-01 -7.250221818685531616e-02 3.250078298151493073e-03 -6.230610236525535583e-02 -2.851430326700210571e-02
-9.813650697469711304e-02 4.303454980254173279e-02 -1.184981986880302429e-01 -1.282827705144882202e-01 -5.477425083518028259e-02 -1.233584508299827576e-01 3.756400942802429199e-01 -2.621096186339855194e-02 -5.007601156830787659e-02 -1.137698888778686523e-01 1.369139831513166428e-02 -1.390593945980072021e-01 -4.702990502119064331e-02 9.687232226133346558e-02
5.161167308688163757e-02 -1.640208810567855835e-01 6.220354139804840088e-02 1.443854719400405884e-01 8.967050909996032715e-02 -5.528411269187927246e-02 1.632307320833206177e-01 -1.524245273321866989e-02 -1.085705533623695374e-01 5.787868052721023560e-02 -1.533213909715414047e-02 -1.385113894939422607e-01 7.582298945635557175e-03 -1.845151372253894806e-02
7.469583302736282349e-02 2.754701301455497742e-03 -9.042563289403915405e-02 -1.377284526824951172e-01 3.076816350221633911e-02 -4.029989615082740784e-02 1.070907413959503174e-01 -2.553257048130035400e-01 -1.470279991626739502e-01 1.780348084867000580e-02 8.072988688945770264e-02 2.165145576000213623e-01 1.028378531336784363e-01 -6.481676548719406128e-02
-3.456748649477958679e-02 3.689532727003097534e-02 -5.945095047354698181e-02 2.006039172410964966e-01 -1.189655736088752747e-01 -1.333453804254531860e-01 -7.985579967498779297e-02 1.290002018213272095e-01 1.158053874969482422e-01 -2.075320631265640259e-01 1.363546848297119141e-01 6.317038089036941528e-02 7.987493276596069336e-02 -1.128513552248477936e-02
3.994805272668600082e-03 -3.871577605605125427e-02 -2.529490888118743896e-01 1.980322301387786865e-01 6.760437786579132080e-02 -9.570468217134475708e-02 3.656578809022903442e-02 1.561466325074434280e-02 5.434704571962356567e-02 1.258711665868759155e-01 -5.520661547780036926e-02 7.528325170278549194e-02 1.391551643610000610e-01 7.728824019432067871e-02
2.885863743722438812e-02 -4.854488745331764221e-02 4.922892525792121887e-02 8.078385889530181885e-02 2.911447174847126007e-02 -2.604624629020690918e-02 -7.792687416076660156e-02 -2.279480686411261559e-03 -2.628176938742399216e-03 -1.393830925226211548e-01 2.989324629306793213e-01 -9.686428308486938477e-02 1.828810945153236389e-02 5.692029744386672974e-02
1.294173747301101685e-01 -2.324749156832695007e-02 -2.548743039369583130e-02 -2.531279250979423523e-02 1.989150941371917725e-01 6.703941524028778076e-02 3.875229135155677795e-02 5.598357319831848145e-02 -9.183668345212936401e-02 -1.566830091178417206e-03 5.773290246725082397e-02 -1.434769183397293091e-01 -6.392443925142288208e-02 -1.585468947887420654e-01
-1.541007161140441895e-01 -1.846963614225387573e-01 5.900504067540168762e-02 3.627290949225425720e-02 -1.094731390476226807e-01 -7.887896895408630371e-02 -1.281522512435913086e-01 1.507594436407089233e-02 3.619979694485664368e-02 -2.440853565931320190e-01 -3.682484030723571777e-01 -1.315351128578186035e-01 1.162915602326393127e-01 3.379755839705467224e-02
5.485276877880096436e-02 -9.520664066076278687e-02 1.538163423538208008e-02 2.525566518306732178e-01 -1.599779538810253143e-02 1.208992302417755127e-01 7.518797647207975388e-04 2.490507513284683228e-01 1.561099886894226074e-01 -3.730021789669990540e-02 1.824335902929306030e-01 -3.198842331767082214e-02 -5.696571618318557739e-02 3.780613886192440987e-03
5.804086104035377502e-02 -8.938167989253997803e-02 -2.908902056515216827e-02 2.984361536800861359e-02 -4.467038810253143311e-02 -9.572041220963001251e-03 -1.077397763729095459e-01 -2.890205197036266327e-02 2.572337351739406586e-02 -2.560174278914928436e-02 1.631435155868530273e-01 -1.391862984746694565e-02 -1.047519594430923462e-02 -4.978921636939048767e-02
-1.095918007194995880e-02 3.362707793712615967e-02 6.409022212028503418e-02 -7.245075702667236328e-02 8.259024471044540405e-03 2.090590447187423706e-02 8.806993253529071808e-03 1.342378705739974976e-01 3.010302409529685974e-02 -1.794528029859066010e-02 5.781240295618772507e-03 1.973380334675312042e-02 5.665918067097663879e-02 -1.098740758607164025e-04
-9.304641932249069214e-02 -3.150853887200355530e-02 6.391548365354537964e-02 5.227978155016899109e-02 5.523746088147163391e-02 1.067328453063964844e-01 1.403460949659347534e-01 1.470363885164260864e-02 -1.097628995776176453e-01 -8.455308526754379272e-02 1.486407965421676636e-02 -6.082279235124588013e-02 -1.062659770250320435e-01 -1.314487308263778687e-01
1.896539777517318726e-01 -2.098382823169231415e-02 -1.320186443626880646e-02 1.696244627237319946e-02 -2.137436568737030029e-01 -1.065106242895126343e-01 -1.169932261109352112e-01 1.367097487673163414e-03 -8.858044445514678955e-02 5.903086438775062561e-02 -1.766500920057296753e-01 -1.694131940603256226e-01 8.455131202936172485e-02 -1.832755468785762787e-02
-4.090327769517898560e-02 -1.241014106199145317e-03 1.729656904935836792e-01 4.079240933060646057e-02 -7.683036476373672485e-02 1.138081252574920654e-01 1.087323203682899475e-01 2.929949015378952026e-02 1.207524091005325317e-01 2.714102864265441895e-01 4.534573480486869812e-02 -1.102846488356590271e-01 -2.345233038067817688e-02 1.659804582595825195e-01
