9.572811424732208252e-02 8.784918189048767090e-01 -2.629688978195190430e-01 1.202818471938371658e-02 -8.548126369714736938e-02 6.665976794793154806e-42 2.986889183521270752e-01 3.591808223757371116e-41 2.945758029818534851e-02 -1.414305865764617920e-01 4.165484011173248291e-02 1.572053134441375732e-02 -2.393871992826461792e-01 -5.223340025770755632e-41
-5.612657964229583740e-02 1.074463725090026855e-01 2.372209280729293823e-01 7.700908780097961426e-01 -3.231090307235717773e-01 -1.136453054567426645e-42 4.282690584659576416e-01 -4.190302797870500487e-41 -5.881941914558410645e-01 -5.260142683982849121e-01 -3.101074993610382080e-01 -2.006483227014541626e-01 2.883903384208679199e-01 3.661032367895017079e-41
6.684692502021789551e-01 1.005720794200897217e-01 -1.498802453279495239e-01 3.603866323828697205e-02 -6.071565747261047363e-01 2.481839710165683514e-41 -2.809734046459197998e-01 -3.532112909177133909e-41 -1.287739127874374390e-01 3.125536739826202393e-01 -1.693303287029266357e-01 2.011528164148330688e-01 -1.207630112767219543e-01 -4.821868015741695541e-41
-4.998290911316871643e-02 -1.315053999423980713e-01 4.562109112739562988e-01 3.491178387776017189e-03 -1.761778742074966431e-01 -3.418187344027526281e-41 -1.812359690666198730e-01 -9.956786108413555216e-41 2.331340312957763672e-01 -5.903790518641471863e-02 2.607410550117492676e-01 7.034760713577270508e-01 -4.409357607364654541e-01 -5.160561854569003827e-41
