-4.905835911631584167e-02 9.067566692829132080e-02 1.725719273090362549e-01 -4.049444105476140976e-03 -4.402466118335723877e-03 3.139643743634223938e-02 1.665228605270385742e-01 1.527746766805648804e-01 -3.715337812900543213e-01 1.015235558152198792e-01 1.328866183757781982e-01 -9.581653773784637451e-02 -6.745509058237075806e-02 1.590467244386672974e-01 -1.350344121456146240e-01 1.474494189023971558e-01 6.480087339878082275e-02 -2.588069438934326172e-02 -5.410288646817207336e-02 -4.871080070734024048e-02 1.812798678874969482e-01 -1.751436144113540649e-01 1.374973915517330170e-02 -8.583970367908477783e-02 5.417529866099357605e-02 4.182642325758934021e-02 7.214116305112838745e-02 2.274722903966903687e-01
1.612220853567123413e-01 -5.961090326309204102e-02 3.662836179137229919e-02 5.743144080042839050e-02 1.334124654531478882e-01 -7.496719956398010254e-01 8.921054750680923462e-02 3.664362058043479919e-02 -1.415670514106750488e-01 -5.629766732454299927e-02 8.964026928879320621e-04 -1.274023801088333130e-01 8.341455459594726562e-02 1.974667757749557495e-01 -5.994636192917823792e-02 2.039835788309574127e-02 -1.543068140745162964e-01 1.700509190559387207e-01 -3.306902572512626648e-02 4.986859112977981567e-02 8.258806914091110229e-02 4.613734409213066101e-02 1.169660016894340515e-01 -6.472234427928924561e-02 9.015472233295440674e-02 3.493301942944526672e-02 -5.039130896329879761e-02 4.848507419228553772e-02
7.774446904659271240e-02 5.023064091801643372e-02 1.850737780332565308e-01 -1.262937337160110474e-01 -1.225363984704017639e-01 2.448973245918750763e-02 6.296733766794204712e-02 -2.000934332609176636e-01 1.670597195625305176e-01 -4.588778689503669739e-02 7.726425677537918091e-02 -1.663235947489738464e-03 2.772993594408035278e-02 -5.241906642913818359e-02 1.372728943824768066e-01 -7.269358634948730469e-02 -1.117610260844230652e-01 6.216942798346281052e-03 1.481538712978363037e-01 2.394536286592483521e-01 -1.185877844691276550e-01 -7.933345437049865723e-02 2.285999478772282600e-03 1.321729123592376709e-01 -3.532127663493156433e-02 1.122753992676734924e-01 -1.248271688818931580e-01 -1.409178227186203003e-01
3.495639190077781677e-02 9.512145817279815674e-02 1.642688512802124023e-01 1.632756739854812622e-01 -3.364960849285125732e-01 6.993924826383590698e-02 -1.702919155359268188e-01 -9.376876801252365112e-02 -4.387773945927619934e-02 1.463129967451095581e-01 -9.708452969789505005e-02 1.705115474760532379e-02 -1.601108163595199585e-01 1.108049526810646057e-01 1.285266038030385971e-02 -1.886202543973922729e-01 -2.323998697102069855e-02 2.643693685531616211e-01 2.680702805519104004e-01 1.099162772297859192e-01 4.640394076704978943e-02 2.213656753301620483e-01 4.567275941371917725e-02 7.257924973964691162e-02 2.591159380972385406e-02 -1.649057269096374512e-01 -9.501949697732925415e-02 -1.360508203506469727e-01
2.236909978091716766e-02 -2.283966392278671265e-01 -2.120042294263839722e-01 -1.957343518733978271e-02 2.426172047853469849e-01 -7.725746184587478638e-02 -1.164243668317794800e-01 4.554586857557296753e-02 1.468104571104049683e-01 -4.583753272891044617e-02 -1.166630908846855164e-01 1.346738189458847046e-01 2.105585783720016479e-01 -1.173341795802116394e-01 1.568684875965118408e-01 -2.972461096942424774e-02 4.205502942204475403e-02 -1.711200624704360962e-01 -5.694884806871414185e-02 -1.554077863693237305e-01 -3.550071269273757935e-02 5.406089872121810913e-02 -8.521572500467300415e-02 -2.704515494406223297e-02 4.702019318938255310e-02 1.103085428476333618e-01 1.768688857555389404e-01 -2.967107892036437988e-01
6.754538857738483245e-41 9.493376706261338210e-41 -3.060155586392535519e-41 -8.096982786561657999e-41 -8.938882903928008095e-42 -7.238126957776977616e-41 -6.010449373182005381e-41 2.241797283226842350e-41 -1.295640560114725864e-41 -3.997904518718703103e-41 -6.685594973293702245e-42 -9.559658123623902058e-42 -3.259420228019524507e-41 1.121501199953080846e-40 -5.565537110758875961e-41 -1.035559565136039815e-42 9.271971548898017113e-41 -2.613421635965783837e-42 -3.861978567679195847e-42 -4.229258895178730402e-41 -4.478269632289250395e-41 -3.282401522834451507e-41 -1.249818100331304346e-41 8.667031001848993584e-42 -2.388793492134515661e-41 5.631258008735709881e-41 7.216827221119240397e-41 4.962978771099204620e-41
1.055747121572494507e-01 7.731918245553970337e-02 -4.646979272365570068e-02 5.543047562241554260e-02 -1.514931172132492065e-01 -3.152503669261932373e-01 -1.305687874555587769e-01 -7.725120335817337036e-02 -1.276216818951070309e-03 9.805272519588470459e-02 -1.743703782558441162e-01 8.122748136520385742e-02 2.772479131817817688e-02 7.913397252559661865e-02 1.573829911649227142e-02 -1.632482558488845825e-01 -1.207295209169387817e-01 1.335412710905075073e-01 8.557202666997909546e-02 6.192471459507942200e-02 5.096632242202758789e-02 1.491952836513519287e-01 -3.302678000181913376e-03 4.216838628053665161e-02 9.261351078748703003e-02 -1.855702847242355347e-01 -6.718713045120239258e-02 2.754276990890502930e-02
1.403820801560601742e-41 5.579269835709259168e-41 -8.533347128352406035e-41 -4.284049665133830749e-41 1.014904425771892012e-40 -1.720514254498010400e-41 -2.709830970311331252e-41 -3.071506103953566538e-41 -9.240021943911411284e-41 -7.908368013263537621e-41 3.978566599911020628e-41 -3.176463358931495336e-41 5.280092613575910723e-42 -4.187360071095418371e-41 8.546519333917059316e-41 1.082124713105553487e-40 -8.050739937238939036e-41 -1.070928338375598198e-40 -3.589566146214451409e-41 8.121225249994477335e-41 3.857494412593356433e-41 3.803544421716850976e-41 -7.341402654597716635e-41 2.716697332786522855e-41 2.576987875893338593e-42 -7.678555065114267622e-41 8.676699961252834821e-41 4.340942382785418322e-41
5.707593169063329697e-03 -3.864330425858497620e-02 -2.209603488445281982e-01 -2.089487910270690918e-01 1.159897223114967346e-01 -1.558814197778701782e-01 2.889017015695571899e-02 -8.106914348900318146e-03 3.922865912318229675e-02 -1.287146061658859253e-01 1.182805076241493225e-01 -3.002982772886753082e-02 1.465084850788116455e-01 -9.603995084762573242e-02 -1.634258329868316650e-01 8.408825844526290894e-02 1.991198956966400146e-01 -1.259539574384689331e-01 -7.790194451808929443e-02 3.680944442749023438e-02 -1.361868977546691895e-01 -9.976353496313095093e-02 1.282650977373123169e-01 8.997982740402221680e-02 -3.193430975079536438e-02 4.240081831812858582e-02 2.442585229873657227e-01 -6.778632104396820068e-02
2.020015008747577667e-02 -4.723522812128067017e-02 -9.855842590332031250e-02 -8.838506788015365601e-02 4.669466242194175720e-02 1.116082370281219482e-01 1.519051492214202881e-01 1.658438891172409058e-01 -7.088018208742141724e-02 2.431974001228809357e-02 1.158796250820159912e-01 -5.319869890809059143e-02 7.214595563709735870e-03 -3.837854042649269104e-02 -3.147835135459899902e-01 7.407159358263015747e-02 2.261099070310592651e-01 -1.218490302562713623e-01 -1.977030783891677856e-01 -3.550644591450691223e-02 4.555344581604003906e-02 -6.583392620086669922e-02 7.310269027948379517e-02 3.907613083720207214e-02 -2.456419728696346283e-02 5.098150297999382019e-02 2.591478526592254639e-01 5.820363294333219528e-03
6.360150128602981567e-02 -8.157674223184585571e-02 -5.948511511087417603e-02 -3.380896151065826416e-02 3.609409928321838379e-02 -4.066681116819381714e-02 -3.158008679747581482e-02 -2.308456413447856903e-02 9.916523098945617676e-02 -9.160605072975158691e-02 1.087007150053977966e-01 -2.300966344773769379e-02 1.212379261851310730e-01 -1.683961041271686554e-02 -5.491502955555915833e-02 9.552034735679626465e-02 9.852453321218490601e-02 -1.047753728926181793e-02 3.348361328244209290e-02 4.402416571974754333e-02 -9.095845371484756470e-02 -2.492053955793380737e-01 1.404373645782470703e-01 9.836647659540176392e-04 2.015645150095224380e-03 2.030128985643386841e-02 8.073506504297256470e-02 -8.580870926380157471e-02
-3.283020108938217163e-02 1.283014118671417236e-01 7.495021820068359375e-02 -3.352046012878417969e-01 -7.535931188613176346e-03 -2.305809594690799713e-02 1.382951438426971436e-01 -3.929005935788154602e-02 -4.636028409004211426e-02 -1.110457032918930054e-01 3.036872446537017822e-01 -1.222161427140235901e-01 4.846363887190818787e-02 5.013480782508850098e-02 6.387300789356231689e-02 1.087355315685272217e-01 1.120430082082748413e-01 1.097661256790161133e-01 9.180577844381332397e-02 1.456147134304046631e-01 -1.742674261331558228e-01 -3.626856207847595215e-01 2.142990529537200928e-01 1.066703274846076965e-01 -3.191717714071273804e-02 5.411737412214279175e-02 3.298713266849517822e-02 1.510524936020374298e-02
-9.614629298448562622e-02 3.553897887468338013e-02 1.268105357885360718e-01 5.512852221727371216e-02 1.036313027143478394e-01 1.255150139331817627e-01 -1.207153201103210449e-01 9.908641129732131958e-02 1.931256055831909180e-02 5.282722786068916321e-02 -7.097869645804166794e-03 9.860225021839141846e-03 1.907207667827606201e-01 7.560206204652786255e-02 2.254835814237594604e-01 2.427557669579982758e-02 -1.515475958585739136e-01 -3.765251114964485168e-02 -7.088102400302886963e-02 -1.390614062547683716e-01 8.304017782211303711e-02 -2.522468008100986481e-02 -3.090628683567047119e-01 -7.603415846824645996e-02 -9.242270886898040771e-02 8.374505490064620972e-02 1.239156536757946014e-02 2.151684835553169250e-02
-1.123000589309908401e-41 -4.223793831167863615e-41 -2.331059995404333197e-41 1.982837327019616155e-42 5.183963538923228272e-41 -3.609184324714998848e-41 3.603719260704132061e-41 2.626033322144707191e-42 3.616891466268785342e-41 -7.956572680436311329e-42 -3.935546737056248744e-41 -2.067756013957700070e-41 2.961083784964770953e-41 -6.734780549391503325e-41 -2.212650275168886155e-42 -1.586550121308557888e-41 1.651290110360364436e-41 9.552651631302277972e-42 -3.278057497595044574e-41 2.006799530759570527e-41 1.245614204938329894e-41 4.467900023653246749e-41 2.473852308919032057e-41 2.066214585646942771e-41 4.896136834350910846e-41 -3.179826475245874897e-41 -4.154849946723082615e-41 -4.924022673790974706e-41
